{
    "model": {
        "scaler": "\u0003csklearn.preprocessing._data\nMinMaxScaler\nq\u0000)q\u0001}q\u0002(X\r\u0000\u0000\u0000feature_rangeq\u0003K\u0000K\u0001q\u0004X\u0004\u0000\u0000\u0000copyq\u0005X\u0004\u0000\u0000\u0000clipq\u0006X\u0010\u0000\u0000\u0000_sklearn_versionq\u0007X\u0005\u0000\u0000\u00001.0.2q\bub."
    },
    "layers": [
        {
            "type": "Linear",
            "params": {
                "in_feat": 15,
                "out_feat": 200,
                "lr": 0.001
            },
            "weights": [
                [
                    0.04020480059550137,
                    0.011045462974635644,
                    0.04836716887976321,
                    -0.008519566311979072,
                    0.0577137879263608,
                    -0.09616009529719832,
                    -0.022448842870980007,
                    0.06759305333700767,
                    -0.16226410071735475,
                    -0.12468499823379936,
                    -0.002684530978067209,
                    -0.06883565440250757,
                    0.1536339410687072,
                    -0.07320515823963478,
                    0.042487827340054664,
                    -0.13237451117791935,
                    -0.10357718593252958,
                    -0.007027399435133672,
                    0.0414371334373411,
                    -0.017386525026091587,
                    0.014144674078735322,
                    0.07250345927800059,
                    -0.02266221563345279,
                    -0.01364666861349487,
                    0.013618411086745906,
                    -0.09828762873192193,
                    -0.0025321493410245402,
                    -0.054337416577777055,
                    -0.11691686552148567,
                    -0.019297384434338982,
                    -0.033329523546449934,
                    0.08207413167436019,
                    0.08327461632210552,
                    0.10242726866611165,
                    -0.0594472743760129,
                    0.05864819385383769,
                    -0.020327984576298818,
                    -0.04019233318497981,
                    0.18276607996569869,
                    0.11090600827613327,
                    -0.020573207763673655,
                    0.024146903895710208,
                    -0.01603380987519561,
                    -0.06359239512726891,
                    -0.00143076306261939,
                    0.02320388250224487,
                    -0.08447906256984465,
                    -0.03798952644527059,
                    -0.01032348454291567,
                    0.02501326182624885,
                    0.0149579225511172,
                    0.01927465158076956,
                    -0.02176740980578712,
                    0.1032646316420037,
                    0.0023330815139695022,
                    -0.018473065546555097,
                    -0.04954413420364156,
                    0.10909368824468044,
                    -0.007954780516445693,
                    0.0779483434625574,
                    0.11784590592397283,
                    -0.06450340199910236,
                    -0.08797768170915327,
                    0.025433015939447693,
                    0.03200581724842573,
                    -0.1399837832269412,
                    -0.13410583163272494,
                    -0.019266711675928267,
                    -0.032013441193840406,
                    -0.08774281586598331,
                    -0.05215528345424916,
                    -0.018326335722499993,
                    -0.07070428931501181,
                    -0.053340208758316944,
                    -0.07921457322315748,
                    -0.03670653930615009,
                    -0.09497032493348574,
                    0.022577077004713807,
                    0.010648745372718408,
                    -0.013291570046171774,
                    0.004809367504091403,
                    0.007435512034153228,
                    0.027240090734316366,
                    -0.09210426018936813,
                    -0.10719518782778646,
                    0.06553077502259394,
                    -0.07149132926442266,
                    0.12599419522539815,
                    -0.040368128599347713,
                    -0.13430804067167795,
                    -0.05050916283757206,
                    -0.04723279691362062,
                    -0.10301610234493062,
                    -0.05185318649912414,
                    -0.05098770608353385,
                    0.06047723732397647,
                    -0.024208906465816558,
                    -0.005123092555230869,
                    0.025804485577217737,
                    -0.03791961505397118,
                    0.08808189973658959,
                    -0.016564755847509292,
                    -0.0249820615592687,
                    -0.09433111679295159,
                    -0.0869131162798526,
                    -0.100186456193841,
                    0.04376110723178598,
                    -0.005665512991716311,
                    -0.03415668078601202,
                    0.15681942424195855,
                    -0.03834413571948156,
                    0.0006876209556450533,
                    -0.06976528262591236,
                    0.08756703625111059,
                    0.05907807566987454,
                    0.015834501528987355,
                    -0.0609870843012636,
                    -0.02039444783113584,
                    -0.004347090094773017,
                    0.07945804136850204,
                    0.026453627260107082,
                    -0.10510095993151476,
                    -0.05864529399322966,
                    -0.09946570525907551,
                    0.06921799536353652,
                    -0.08027429579651539,
                    0.04510505624991053,
                    0.029346501300702474,
                    0.10323523302907119,
                    0.06438003420571188,
                    0.04592305286249449,
                    -0.034915015099000274,
                    0.029454832377072925,
                    0.0563090172106134,
                    0.024040080822211617,
                    -0.0225527807822699,
                    0.05011361526215691,
                    0.019407650954380008,
                    0.06435082929778654,
                    0.07998816858013849,
                    -0.09865394646517729,
                    0.03839965872357186,
                    0.07204531554023584,
                    -0.008694029801790825,
                    0.0482656343906379,
                    -0.02600520803798863,
                    -0.08381909285505923,
                    -0.12646171382096733,
                    -0.06622572311737084,
                    -0.029452413543786183,
                    0.025266370172215866,
                    -0.08757955376074181,
                    0.037354510448269186,
                    0.10859807190555705,
                    -0.049367893230043695,
                    0.07655666491771808,
                    0.0037343694796383915,
                    -0.11965431222486872,
                    -0.024686969091553927,
                    0.1145604046958062,
                    0.03389710295160608,
                    0.061939934177490344,
                    -0.014916706484476714,
                    -0.00528311746460469,
                    0.018308570105040937,
                    0.07850259373019004,
                    -0.05662713710714073,
                    0.12526651605490988,
                    0.029328923728408448,
                    -0.021224321104404073,
                    0.07290871391131966,
                    0.0014889935385089565,
                    0.0663509141187343,
                    0.05051410496239936,
                    -0.03743138852202362,
                    0.03712459521762891,
                    0.07374315893832427,
                    -0.028554999004458917,
                    -0.09020388295707968,
                    0.04358670195026977,
                    -0.10000610625109738,
                    -0.10193990051170443,
                    0.05017590757097171,
                    0.011887497893384568,
                    -0.12324122271315337,
                    -0.004673713274302091,
                    -0.010602191318864253,
                    0.09400850649940255,
                    0.05041710668759052,
                    -0.043758070766888646,
                    0.09494600032461699,
                    0.06907054695580939,
                    0.05789479489116252,
                    0.11055135442477353,
                    -0.024602462630909146,
                    0.05732099516429768,
                    0.03239885687463299,
                    0.13410171031731635,
                    0.03270394248670113,
                    -0.02024871919760802
                ],
                [
                    -0.041457502962496354,
                    0.005383223049166692,
                    -0.05298386161296948,
                    -0.030653092433882444,
                    0.15165663518673642,
                    -0.004013263536089227,
                    0.0013280901383454424,
                    0.0725851801695454,
                    0.10483411387219746,
                    0.0280530479654286,
                    0.03655748581009895,
                    0.09162848226983789,
                    0.009763400033981764,
                    0.005564863995248611,
                    0.035700131886916564,
                    0.07414471098550826,
                    -0.009757385835520375,
                    0.1147480266720129,
                    -0.05772476352374469,
                    0.03964746925427129,
                    0.028586056637258595,
                    -0.03145743799579669,
                    -0.02389959095096682,
                    0.026351047085549955,
                    -0.05142848410965898,
                    0.11458695945801253,
                    -0.03750982905795343,
                    -0.024947948595572665,
                    0.038346886916042607,
                    -0.048774899078550926,
                    0.0916981441149723,
                    0.01282668724314219,
                    -0.10387000291795702,
                    0.014766979788205532,
                    -0.0368353981861128,
                    0.07830230298177301,
                    -0.02651818049374373,
                    0.05130404456649277,
                    -0.01253728441953566,
                    -0.11312744697790086,
                    -0.02481320239445894,
                    0.07653139836464314,
                    0.018749104244814886,
                    -0.03646506049780286,
                    0.04041965292686051,
                    0.15561280054788218,
                    -0.10586873336029241,
                    0.03472311684182973,
                    0.0384141156563422,
                    -0.11275300106719287,
                    -0.02700311887704691,
                    -0.030235192399268168,
                    -0.03172637861824134,
                    0.010503114618055833,
                    -0.11141561614187119,
                    0.059993326808061305,
                    0.060256001711399235,
                    0.11210127587508774,
                    -0.05432524713483815,
                    0.013918251166494549,
                    -0.027551600318410686,
                    0.06637128958454963,
                    -0.13376029561051947,
                    -0.1232584017437141,
                    0.016622097201766276,
                    -0.04738657400415596,
                    -0.028061172139968903,
                    -0.03279070812565079,
                    0.05454249292044361,
                    0.11532143747376213,
                    0.02054013186948891,
                    0.019896628713191464,
                    -0.10467619692784043,
                    -0.1321607824922551,
                    0.05351687112208179,
                    -0.040705089703262275,
                    -0.0008056886859317816,
                    -0.005133736018457622,
                    0.002184950638598574,
                    -0.017274968635857424,
                    -0.10143932322866403,
                    0.05451552390303415,
                    0.0911567435973025,
                    -0.045692906912932235,
                    0.09863176189643717,
                    0.021004663158106916,
                    0.09033881934913632,
                    -0.05740056942630243,
                    -0.023676185658940453,
                    -0.08086063308641797,
                    -0.04556823274230327,
                    -0.07302377495793619,
                    0.18490472428310753,
                    -0.02846274392223358,
                    0.04000893072552523,
                    0.11273262699820297,
                    0.032718984855177026,
                    -0.01671297959103788,
                    0.13682996844845025,
                    -0.04589400697632807,
                    0.021502074371159956,
                    -0.07879008601358463,
                    0.013208714999930695,
                    0.016090732910505858,
                    -0.01780789439494057,
                    -0.0905181047944278,
                    -0.0002722419980891973,
                    -0.02422971778405811,
                    -0.06929415424697304,
                    -0.03300294446936263,
                    -0.08526416786398845,
                    0.06130350352025528,
                    0.08319714376137936,
                    -0.03982253238440293,
                    0.05463471438533722,
                    0.05518149322932806,
                    0.012649873022420271,
                    0.0244154170363995,
                    -0.01095485082656649,
                    0.11036916003401137,
                    -0.062478254747998625,
                    0.026664038528876204,
                    -0.06707123282960249,
                    0.13936451827896618,
                    -0.06165312786430315,
                    -0.03969873692899833,
                    -0.11654700838142983,
                    0.005516648901401276,
                    0.030279051067537862,
                    0.04685609545888141,
                    -0.007661658340570508,
                    0.050233036064607196,
                    -0.007343782580042947,
                    -0.012010288934634905,
                    0.12678674900079895,
                    -0.007160921171042399,
                    0.026671326137735166,
                    0.08745818367957263,
                    -0.11153336986197773,
                    0.06450631493050137,
                    0.16487179436282723,
                    -0.032762038037533824,
                    -0.050891058445164006,
                    0.00046787533257230436,
                    0.10492099047228809,
                    0.023000058487840605,
                    0.015836399557637416,
                    -0.034499007412498325,
                    0.04822237928547718,
                    0.03864235625329429,
                    -0.005840880318511726,
                    0.0897803156240185,
                    -0.00643841143788884,
                    0.03171892740908442,
                    0.13560379933559005,
                    0.05892673237013836,
                    0.13679134430255677,
                    -0.033176078155251816,
                    -0.0896176460334473,
                    0.008757975066930615,
                    -0.12658116908618788,
                    -0.024181242643209068,
                    0.08734443390097424,
                    -0.02677159087888273,
                    -0.06701905633298998,
                    0.05066796390453058,
                    -0.049587559875335266,
                    0.06889792021292013,
                    -0.12350298074271808,
                    0.11837218358126499,
                    0.12483918570502965,
                    -0.03966442751730684,
                    -0.03408020832467818,
                    0.04837980856666777,
                    0.05038469760906792,
                    -0.061951707895057245,
                    -0.03770962775828088,
                    0.13607483377084653,
                    -0.19439903455541224,
                    -0.010748801555302119,
                    -0.10859623154229225,
                    0.057910966175254285,
                    0.08879839607978994,
                    0.00622251628490955,
                    -0.1407739979955359,
                    -0.09218877447852707,
                    -0.10536177939443024,
                    -0.038692224695000214,
                    -0.14664821931719788,
                    -0.02617171252048426,
                    0.052219689524830776,
                    -0.07791318942131595,
                    0.05809483729463851,
                    0.008321913269801333,
                    -0.008298150548565494,
                    -0.07995189429358121,
                    0.04032978268013494,
                    0.09228228349012012,
                    -0.04599272262964457,
                    0.033845833529053564
                ],
                [
                    -0.02369409563690854,
                    -0.0637219702813568,
                    0.057962754770622404,
                    -0.07112896970928116,
                    -0.00963524300180432,
                    -0.08636459879502764,
                    0.013016948149323285,
                    0.014972169954900033,
                    -0.006052657170146568,
                    0.048951130970306254,
                    -0.11685036958060652,
                    0.0815203542471142,
                    0.05250836472840836,
                    -0.010517685158775384,
                    -0.10117017170648843,
                    0.09690932396260421,
                    -0.012546802057322514,
                    -0.043345094167625324,
                    -0.15959719441475664,
                    0.06621906541275856,
                    0.0717542610236474,
                    0.18462899388451842,
                    -0.05087326776929117,
                    -0.024554682387593292,
                    0.036256382044650814,
                    0.02335834994363053,
                    0.12292895931571599,
                    0.0009052700016541576,
                    -0.09592748614954422,
                    -0.02883561012369511,
                    -0.006740171246290128,
                    0.003967429882613402,
                    -0.0046613230442796175,
                    1.3482840995358132e-05,
                    0.058843905146995154,
                    0.0007930589379746164,
                    0.01649189129414693,
                    -0.10070791653458426,
                    -2.7927667685036087e-05,
                    0.057144602853591145,
                    0.011295525751237876,
                    0.06680655937122429,
                    0.08078549004587278,
                    0.017143163454681826,
                    -0.01261105352401884,
                    8.067294998960668e-05,
                    0.000472883666207485,
                    -0.08563677157251212,
                    0.006406612809339849,
                    -0.11896446831162096,
                    0.07217907363834795,
                    -0.0018659546413296551,
                    0.06172139829939374,
                    -0.0032219206698877777,
                    0.043099214923564076,
                    -0.03257175386946687,
                    0.05800015809000307,
                    0.00924707607511086,
                    0.023309756986983517,
                    0.020082738140172512,
                    -0.015811518273750706,
                    0.1145328711947299,
                    -0.029392039899533564,
                    -0.010956911500980724,
                    -0.11659262132769646,
                    0.030109924866008837,
                    0.0009775076628021483,
                    -0.06190832196062368,
                    0.024584818175813282,
                    0.04579259446675255,
                    0.06870159935342436,
                    -0.040092005679039755,
                    0.03588061327615814,
                    -0.05550929390749569,
                    0.061490467492636085,
                    0.0055618330486911826,
                    0.01119673068945009,
                    0.04879158079679178,
                    -0.010973562622287002,
                    0.06622726977106383,
                    -0.03224262242334672,
                    0.063972065429777,
                    -0.0474987257459711,
                    0.13623776911131846,
                    -0.11722161507081609,
                    0.09287261991735751,
                    0.04323541546431336,
                    -0.13015104901804925,
                    0.07429291518524417,
                    -0.05390209816997707,
                    0.04196682962507409,
                    0.06985325179257412,
                    -0.14429151737562113,
                    -0.05733906023773874,
                    -0.04988114484438784,
                    0.02617951204299086,
                    -0.07746696459428373,
                    -0.010448105920923635,
                    -0.11434595366015335,
                    0.061070837959325504,
                    0.03738122811382411,
                    -0.012099573870110434,
                    0.048975577703784634,
                    0.023159715371961407,
                    0.04900691654051771,
                    0.04277799738813628,
                    0.16356512163075235,
                    0.07337538257808802,
                    0.10665624639678381,
                    -0.027502002766055644,
                    -0.056466392879651335,
                    -0.02366983988962643,
                    0.008892098599231037,
                    -0.15386527297528604,
                    0.059690378279733676,
                    0.07765809048264254,
                    -0.0885361615138845,
                    0.030335959409740033,
                    0.00017154553447766175,
                    -0.00170652298260045,
                    0.01879973177398061,
                    0.05197795259855951,
                    -0.06132266115850766,
                    -0.0059257860767043214,
                    0.0032752208130533626,
                    -0.06257686510529897,
                    -0.07946313691791752,
                    -0.0463123827144722,
                    -0.04416692499308841,
                    -0.07615418768100717,
                    0.042633337934495974,
                    -0.03285967414606773,
                    0.04868870369440535,
                    0.12825766860936166,
                    -0.03920046179302716,
                    -0.0089063993765285,
                    0.00997372248693527,
                    -0.0032461043460896817,
                    0.10705810306167562,
                    -0.006329590346127657,
                    -0.015533017113924184,
                    -0.06541430090399783,
                    -0.00020076388672555763,
                    -0.07608051233052025,
                    -0.08294821459100284,
                    0.053683240411947,
                    -0.04083500549913504,
                    -0.0851877941703437,
                    0.011324035303735273,
                    -0.08229216503261387,
                    0.02944638652869909,
                    0.023103055310311208,
                    -0.005928490621974694,
                    0.11544231120117664,
                    -0.09867344229456801,
                    -0.13013577721178818,
                    -0.03193372181862527,
                    0.03033279783012145,
                    -0.048904750123068726,
                    0.036315093271008854,
                    -0.049108179316222265,
                    0.10376405617704004,
                    0.0353474215165489,
                    -0.07059329580115022,
                    -0.03173315370373056,
                    0.1733584997634175,
                    -0.05873122789679967,
                    0.045661370027973554,
                    0.10572576227433894,
                    -0.08671968702682659,
                    0.06206022674679116,
                    0.07288391771833266,
                    -0.10984945587183288,
                    -0.06121914644783875,
                    -0.07723263822654879,
                    0.016377716607318387,
                    0.008528143988892617,
                    0.12465505743752653,
                    0.0053707675163616716,
                    -0.048421586389406676,
                    -0.033891492602731936,
                    -0.03998471917352437,
                    -0.09882717072454283,
                    -0.04787845217531962,
                    -0.07398425304117257,
                    0.1406623170308154,
                    0.05164613453520776,
                    -0.04751043960957313,
                    0.004450689746349556,
                    -0.012959644985767751,
                    -0.03861382818002969,
                    0.06852160049152076,
                    -0.11918607989315716,
                    0.06715541981460317,
                    -0.00375545989505253,
                    -0.019335160007758003,
                    0.17836139151612337,
                    0.05996432514142387,
                    0.051694977457564545,
                    0.11982811898320228
                ],
                [
                    0.034675587726215144,
                    0.017565642493400976,
                    -0.11394696853205886,
                    -0.004901331515397604,
                    -0.05145262571953618,
                    -0.08464301568014024,
                    -0.0014759998313163627,
                    0.02606123451155685,
                    -0.021458677976566393,
                    0.05953983005806527,
                    0.13414083322352885,
                    -0.17040831115234636,
                    0.24635231539443345,
                    0.04340328180654714,
                    -0.08574079137993189,
                    -0.14321742985295624,
                    0.018669797828063623,
                    -0.04743109795064848,
                    -0.06569052394965508,
                    0.044056828612593135,
                    0.10366406204241708,
                    -0.03537724580802509,
                    -0.007009569332447017,
                    0.042251264469381024,
                    -0.011099910263256728,
                    -0.017123169437534513,
                    0.012823099286310185,
                    -0.014811605183289429,
                    -0.11338899821383545,
                    0.038150735959708526,
                    0.05346231489844811,
                    -0.012920735587910126,
                    0.05355010614754477,
                    -0.019974132995523662,
                    0.042667073529234746,
                    0.08182503460014713,
                    -0.024070623320458916,
                    -0.05585125295489434,
                    -0.0779665081632719,
                    0.10229744436820967,
                    0.029013806691222662,
                    -0.04858970172230093,
                    -0.014702163280748555,
                    0.019150947020362973,
                    0.06771602492976564,
                    0.02370191963665641,
                    0.12554876584934438,
                    -0.08620801000617088,
                    -0.018369087719205222,
                    0.04390474723479237,
                    0.034033419107324665,
                    -0.03589027327563495,
                    -0.05212455447494999,
                    -0.01940881957302368,
                    0.08969781842428914,
                    -0.09015038020189772,
                    -0.027300723262130552,
                    0.03230217743233195,
                    -0.03713955252110771,
                    0.12260965633354992,
                    0.05045188990882244,
                    0.04730050902649267,
                    0.0048155779193977954,
                    0.10485370111138549,
                    0.015055871227316199,
                    0.13170984599608743,
                    -0.027483270944058974,
                    -0.01422344669931057,
                    0.053055521629292966,
                    -0.003252640593739963,
                    0.04922108748788454,
                    0.025109539536639854,
                    -0.010280217528732689,
                    0.0021281233970689237,
                    0.05051958923088096,
                    0.11347472962008699,
                    0.09860911731370853,
                    0.06340332239128241,
                    -0.04320685421646679,
                    -0.050907566379547145,
                    0.038698957781404045,
                    -0.09016418933900834,
                    0.011644467204472781,
                    -0.03708312403231205,
                    -0.006030395232475144,
                    0.024355297773430474,
                    -0.016437522125177496,
                    0.013342505544428689,
                    -0.06054600445795289,
                    -0.02954921050907652,
                    -0.09623846949045554,
                    -0.08111721435198121,
                    -0.07204424228142084,
                    -0.04685994977599903,
                    0.05630563783795868,
                    -0.04182690160212113,
                    -0.060022239441928624,
                    -0.05118609912823844,
                    0.05012181686008219,
                    -0.01843346141034945,
                    -0.047877200840865004,
                    -0.007480639309785718,
                    -0.06421010704241659,
                    -0.02017179122314796,
                    -0.11257212652432803,
                    -0.06808907717328795,
                    0.09871101222457755,
                    -0.17396495105436816,
                    -0.007000084008639231,
                    0.002223324930752779,
                    -0.004015324435257339,
                    -0.07481329925359935,
                    -0.0793796163875961,
                    -0.005651652223592255,
                    0.022940299827054977,
                    -0.13218937941793138,
                    -0.06227408483576003,
                    -0.06046034782960867,
                    -0.03948742393517406,
                    -0.02754412469995361,
                    -0.0635130553398936,
                    0.09201849826667771,
                    -0.18689076058083054,
                    -0.012589736414548419,
                    -0.06520564017498978,
                    0.015291613978677631,
                    -0.01724262132437376,
                    -0.03860244206148135,
                    -0.05756907775292079,
                    0.01034257041248631,
                    -0.049801606331099764,
                    0.08615925550300055,
                    0.01352790110952479,
                    0.10925653218310326,
                    0.03536518647762279,
                    0.0012018189396135299,
                    -0.04827463090804259,
                    -0.005510885912504197,
                    0.055520076218812824,
                    -0.01608621950118799,
                    0.06747320082010082,
                    0.030211597465819796,
                    -0.03714372628769577,
                    0.005194410102096782,
                    0.005505744657239654,
                    0.034791951855455125,
                    -0.09192311904416593,
                    0.00989688475134377,
                    0.07141669802892614,
                    -0.006219827834271301,
                    0.07550228318828835,
                    -0.07422025014530557,
                    -0.037812581301561024,
                    -0.058999254429363296,
                    -0.08916107566939854,
                    0.09270089912272424,
                    -0.050123046351918756,
                    0.14871909662168514,
                    -0.04670651747519275,
                    -0.0663767637035565,
                    0.024574270728804453,
                    0.025231101139995032,
                    0.02099771062634796,
                    0.032981895386840245,
                    0.06557852669620653,
                    -0.08952511930459374,
                    -0.0026904153808093856,
                    0.013838308925130948,
                    0.013072705991133506,
                    -0.034868579641222364,
                    -0.05763214758823475,
                    0.11127386584096939,
                    0.030979333287807356,
                    0.028778896200174577,
                    0.018365621088625612,
                    -0.040284370314732844,
                    0.026898946128291475,
                    -0.021707156647516417,
                    -0.03857909134919174,
                    -0.09024795747500843,
                    0.146461547324569,
                    -0.03753180195972503,
                    0.0025548046868219087,
                    0.011335414389908047,
                    0.01779095959605174,
                    -0.038928647349661075,
                    -0.005422561448958798,
                    0.03578482232100175,
                    -0.0065332165274288026,
                    0.004096179978078748,
                    0.0339099840446789,
                    -0.007132966589074995,
                    0.05498060629345643,
                    0.10324968085302264,
                    0.015023743323225702,
                    -0.1338394340300692,
                    0.005741432417451401,
                    -0.0820402449296667,
                    0.051815363061528154,
                    0.02796487518362733
                ],
                [
                    0.0076356003640024326,
                    0.0751767919344813,
                    0.04205759031099405,
                    0.07980868544736175,
                    0.04688305301747739,
                    0.05163662319962544,
                    0.018797114929188445,
                    0.07473070112273968,
                    -0.060835403973596006,
                    0.05837857775081151,
                    -0.060287128766464956,
                    -0.06439510413001516,
                    0.01403128194904682,
                    0.021207061068956933,
                    0.07140534070209172,
                    -0.07423003930082486,
                    -0.09536253676985802,
                    -0.012520289981458287,
                    -0.026468275169242036,
                    -0.06550268920536169,
                    -0.07996512352805683,
                    0.015569579401446765,
                    0.02099314799706631,
                    -0.017974086418564322,
                    0.05970399349252028,
                    -0.025746355220032296,
                    0.07453665231247256,
                    0.04196416383309217,
                    0.14982136777136407,
                    -0.09077795855454471,
                    -0.01357088145093115,
                    0.00834935670207163,
                    -0.1430604413220249,
                    -0.0294336014111225,
                    -0.04983623815763546,
                    0.009323453205260058,
                    -0.037460817338433254,
                    0.05266156936108006,
                    0.1698760602276731,
                    -0.12727640858654837,
                    0.05006172266067479,
                    -0.04311611180271795,
                    0.0609123386666251,
                    0.14524136792655157,
                    -0.0025167075246919227,
                    0.026902491060770944,
                    -0.07411095077836405,
                    0.05988603354674301,
                    0.032156403659412164,
                    0.023127581149428228,
                    -0.025228118592794436,
                    0.04485424655666234,
                    -0.009372692884402449,
                    0.0432457580003037,
                    -0.0943438575233493,
                    0.13164477878868347,
                    0.10104071352493718,
                    -0.030473942103913725,
                    0.06876279615883477,
                    -0.007557585044379989,
                    -0.044770792965200513,
                    -0.02753065495780772,
                    -0.050196921549388186,
                    -0.12595932511419974,
                    0.1272459902461895,
                    0.00396123681171406,
                    0.029510493918533155,
                    -0.046418822382725884,
                    0.1660617213983239,
                    -0.014106344837219603,
                    -0.003418383390720892,
                    0.07719303089602635,
                    0.05122112790235451,
                    0.04088412037676311,
                    0.1408964983613673,
                    -0.048756035046901874,
                    -0.023423073036238116,
                    -0.09395765981369449,
                    -0.002615228413639164,
                    0.045278705171791486,
                    0.12090839132497395,
                    -0.08162376440688766,
                    -0.057891862681045174,
                    0.010118762304282047,
                    0.009449121294154655,
                    -0.07537434928950117,
                    0.05588112715657878,
                    0.050155550087053226,
                    -0.0637965855077879,
                    0.02646505726630254,
                    0.011512767350973632,
                    0.059879008770651665,
                    0.013540830277273362,
                    0.004278542338023327,
                    0.1017943967182247,
                    0.005096482619042392,
                    -0.07403413329701412,
                    -0.05836164674479896,
                    0.08623038723193661,
                    -0.049041019525063345,
                    -0.09133983138104357,
                    0.11133721134117401,
                    0.09172059003243749,
                    -0.036994523168128915,
                    0.02028054168837097,
                    -0.07012194685215696,
                    0.06432589148782464,
                    -0.08775490407746607,
                    -0.100872202507136,
                    0.1351264683194422,
                    -0.06700975988732315,
                    -0.09695945909640458,
                    0.13039112585537815,
                    -0.081767404593536,
                    0.01205507879670182,
                    0.042706745320868524,
                    -0.03622083278781922,
                    0.14003027988195435,
                    0.05158740512629168,
                    -0.09685351876973293,
                    0.1456432964983318,
                    -0.032261539842015616,
                    -0.02424442554655763,
                    -0.0010754007210388554,
                    0.1156930023229266,
                    -0.0396029294909358,
                    -0.053817028207808024,
                    0.08919437171442045,
                    0.024865602307325946,
                    0.12090721815889495,
                    0.00470277168008986,
                    0.019813807523912725,
                    0.027810042413709532,
                    0.03822799597580504,
                    0.0048360459320327355,
                    0.06734890817068544,
                    -0.037196608202705504,
                    -0.08035556865453035,
                    -0.008765880775709453,
                    -0.10424477307890899,
                    0.01600311881151126,
                    -0.030305905431125588,
                    -0.05492945707187638,
                    0.009847596438328755,
                    0.04203526224470844,
                    0.00860558411120604,
                    -0.025996161118537035,
                    0.1353529255380027,
                    0.03867782293280379,
                    -0.019164391060816806,
                    -0.02943665124832877,
                    -0.001984302099190776,
                    -0.02918471782582802,
                    0.03290572228296341,
                    -0.0501571756547268,
                    -0.06132788122862627,
                    0.05562339774635071,
                    0.04868296929527356,
                    0.07235170283574428,
                    0.06989494007957117,
                    -0.0666863294531896,
                    0.10645995212079473,
                    0.022363174390660594,
                    -0.004447815395760274,
                    -0.07545491608150703,
                    -0.049183238849848473,
                    0.013918004091439022,
                    -0.039140112054359986,
                    0.0016199973543296637,
                    -0.045713467253522,
                    0.11748779724301382,
                    0.04605903454665641,
                    0.11368653623293969,
                    -0.006232570449642827,
                    0.08239790334542098,
                    -0.04335231893792501,
                    0.036583009255845574,
                    -0.05617549774256645,
                    -0.002099998754759424,
                    0.0077865495565295085,
                    -0.028991789389291436,
                    0.04998079875989228,
                    0.12024343022186344,
                    0.10964780133420379,
                    -0.04615057060995944,
                    0.027728576626295964,
                    0.012868063334306706,
                    -0.014734145535854013,
                    0.16445524811974743,
                    0.006782056509067489,
                    -0.053685891932506905,
                    -0.02706381341214889,
                    0.09305727275793214,
                    -0.028200665952639523,
                    0.03661616583002487,
                    -0.1604859508516658,
                    -0.06974073410830664,
                    0.0700964504620088,
                    -0.107850497901554,
                    -0.01345199855046619
                ],
                [
                    -0.058525125395025544,
                    0.016311736632246835,
                    -0.09699149413706389,
                    0.011734204998267253,
                    0.06788509809226403,
                    0.0247531098545671,
                    0.03187900964645727,
                    -0.014754354853420169,
                    -0.11245025506708407,
                    0.06579522498404763,
                    0.09482933925197447,
                    -0.01700699637125622,
                    -0.03205514642792588,
                    -0.02217869309056999,
                    -0.030899730933070094,
                    -0.045028298591319786,
                    -0.027072976437390373,
                    -0.05913481726367914,
                    0.034663102517593046,
                    0.032770072440527744,
                    0.03908393703500978,
                    0.0019353149678096803,
                    -0.08472690143114671,
                    0.09416072443301854,
                    0.07059095193447432,
                    -0.04563783138281452,
                    -0.10685243179439886,
                    -0.07184409426898784,
                    -0.033134280046192566,
                    0.06440854598662273,
                    -0.018305758330019593,
                    0.057412679997112935,
                    -0.2611789486765356,
                    -0.1675653219800185,
                    -0.021245957463746856,
                    -0.12328826563718309,
                    0.002562723043326815,
                    0.06928601644182365,
                    -0.010187311099637827,
                    0.08931243171447696,
                    0.027158694741995188,
                    0.04045638313776612,
                    0.028312384115339775,
                    0.048981194317625244,
                    -0.025060551507501774,
                    0.010017952596723737,
                    -0.10265488912043358,
                    0.013742481138950527,
                    -0.06309376668576187,
                    0.038097037986425296,
                    0.024954737569380693,
                    0.05893671558588292,
                    -0.16687481125687428,
                    0.054282641706929737,
                    0.06515801278878461,
                    -0.007871868736169036,
                    0.05083146037129673,
                    -0.1455496573514567,
                    -0.03914480794633198,
                    -0.07446649024607699,
                    -0.02875732134039623,
                    0.013521116750945798,
                    -0.0740544770778123,
                    0.11432442830101673,
                    0.021753099827005143,
                    0.018420076453076986,
                    -0.042762210184889037,
                    0.038321910234136336,
                    0.06483940773610339,
                    0.03794663191544195,
                    0.011308683162694221,
                    -0.00737095446545133,
                    0.025662754237024566,
                    0.09208225980733521,
                    0.08914139238225072,
                    0.08892209244145877,
                    -0.034626813397670334,
                    -0.015858541820289524,
                    -0.0522943122163542,
                    0.09854882398064241,
                    -0.04136222659774998,
                    -0.10675363127375231,
                    -0.08493523726490888,
                    -0.1340996012485836,
                    0.11449553871407998,
                    0.033234013802991895,
                    -0.01959380562560602,
                    0.2566960398952752,
                    0.04874336794082662,
                    0.005688758324625173,
                    0.06611118455230713,
                    0.00611942664927002,
                    -0.14853413318187567,
                    -0.012742626883988667,
                    -0.03821185404849028,
                    -0.09944057340259925,
                    -0.03177014071637203,
                    -0.004411835164954789,
                    0.13527538869733724,
                    0.00014796566155875722,
                    -0.07735752185892297,
                    -0.08238666700157271,
                    -0.18260808367795375,
                    0.10250097593862974,
                    0.03570151371965627,
                    -0.021930000344281223,
                    0.008373977517862575,
                    -0.020939626634059596,
                    -0.06771020124836855,
                    0.10756040311081524,
                    -0.046215942136399554,
                    0.010580667828208625,
                    -0.04995249204659526,
                    0.04655855907371021,
                    0.05655855089087343,
                    -0.05653674403139403,
                    -0.0022845965673273963,
                    -0.11590496315296575,
                    -0.030560625392634582,
                    -0.06002971404958341,
                    0.05745426566605262,
                    0.038526657280728564,
                    0.012744248971796645,
                    -0.0009321739820738136,
                    0.005016971133495782,
                    -0.004072508513831967,
                    -0.12524136452303603,
                    -0.037042535195618606,
                    -0.0006784791695051987,
                    -0.10998993069577379,
                    -0.03560746474793994,
                    -0.12149069704397567,
                    -0.07712693527026959,
                    -0.003051273639959371,
                    0.021874475178242987,
                    -0.043694133110083654,
                    0.006970855951526653,
                    0.02449820950239067,
                    0.03848519700168357,
                    0.15417236918988525,
                    -0.015966059177177507,
                    -0.02729476992206766,
                    0.12019286055985164,
                    -0.0032974503132631307,
                    -0.02073642680054294,
                    -0.12616014526319883,
                    -0.0752907226178251,
                    -0.005347983726989197,
                    -0.030406467099536563,
                    0.036426065981299764,
                    -0.058983595002936505,
                    -0.09976595940499064,
                    -0.0015080020484635913,
                    -0.0030880980702048437,
                    -0.0011411280232829992,
                    0.021309737746556576,
                    -0.03372748924124436,
                    0.018270391464573453,
                    0.09565983027333898,
                    -0.08486570840756592,
                    0.028800875256063056,
                    0.04095981921053543,
                    0.0797765817742618,
                    -0.09305621161698001,
                    0.0421370929726179,
                    0.036137881328036074,
                    -0.12380142639489872,
                    -0.06094689109617671,
                    -0.09795606151980243,
                    0.02352265337102293,
                    -0.03555065685205317,
                    -0.04071501758182852,
                    0.07592625664656734,
                    -0.05087650046538699,
                    0.00905749622440341,
                    -0.021024938088773714,
                    0.04729490075224473,
                    -0.016028886985818915,
                    0.035959716411494765,
                    -0.0431509116813013,
                    -0.01155033911128869,
                    0.048363787900469975,
                    0.05210227555439797,
                    -0.06980427538126371,
                    0.11431536724086942,
                    -0.06216626740090454,
                    -0.012399543897161587,
                    -0.01339494796927575,
                    0.04654233054571431,
                    0.025925828183741617,
                    0.12320471273961865,
                    -0.046553592690792484,
                    -0.07802046022163248,
                    0.013892130293544601,
                    -0.09434844339869948,
                    -0.031065353896063134,
                    -0.026015387514547534,
                    0.06445466626302321,
                    0.06355096792076052,
                    -0.01115879948586134
                ],
                [
                    0.07603891014103681,
                    0.032922407141342175,
                    -0.03241771348064421,
                    -0.011644035482810502,
                    0.052944082279328314,
                    0.03701126607910153,
                    -0.09990365709273391,
                    -0.10470782060000086,
                    -0.02069972620952738,
                    0.026413532415642593,
                    0.010872042343833248,
                    -0.00048380701491373756,
                    0.06021936588955653,
                    -0.06184490058295699,
                    0.14696226694520292,
                    -0.056282994517139716,
                    0.16033860376633982,
                    0.04023266411080838,
                    -0.07116520298769685,
                    -0.02872436871384442,
                    -0.02473444599030855,
                    -0.02041319890018879,
                    -0.006995346409525624,
                    -0.09825908147701741,
                    -0.06520542616629209,
                    -0.028909466169938176,
                    0.0803198275359214,
                    0.040371876022302175,
                    0.11344663706785509,
                    0.004857998761597281,
                    0.0256252931364423,
                    -0.09108634130787154,
                    0.04602407821254169,
                    -0.015214573807396294,
                    0.0051767362852761295,
                    -0.08754991756783784,
                    -0.07555165332890759,
                    0.01600872725241583,
                    -0.030995355757483817,
                    -0.160703879805378,
                    0.1827417493042435,
                    -0.13057308499305634,
                    -0.02220512515885183,
                    0.11762299220175174,
                    -0.016865867343321045,
                    0.04669648923785503,
                    -0.1587138763743345,
                    0.022614145746039562,
                    -0.031447718403649155,
                    -0.06891701137284977,
                    0.012176017079850924,
                    -0.034452436070614906,
                    -0.12602615939184628,
                    -0.02623398393242324,
                    0.016007040048210183,
                    -0.06702191490417794,
                    0.11293076042319379,
                    0.09236344297175042,
                    -0.04856340673665756,
                    0.09037035031449346,
                    -0.009411357935397428,
                    0.10595885995945568,
                    -0.043462897213133594,
                    -0.033348195780388,
                    0.0883608510283429,
                    -0.054641727609287295,
                    0.036109242258211015,
                    -0.0026581852590406253,
                    0.09254757812935517,
                    0.08258430030994691,
                    0.027079906674725967,
                    -0.08573054665147305,
                    0.039926100701113174,
                    -0.09169975838203036,
                    0.0060247433283067125,
                    -0.06363800769759541,
                    0.0707875929288725,
                    0.07619287131123352,
                    0.014418074171817686,
                    -0.01030359218674799,
                    -0.00517641510507534,
                    0.007229520152404731,
                    -0.028228936654725603,
                    -0.005584317185980317,
                    -0.06777681374164526,
                    -0.19832664017323826,
                    0.08287233213847198,
                    -0.029895951920752374,
                    -0.05597082906821507,
                    -0.06744000000872191,
                    0.0448101841584638,
                    -0.15901362634032096,
                    0.1337406672109361,
                    0.07819619481233447,
                    0.19233833858703733,
                    -0.0730253633804104,
                    -0.03112183834923032,
                    0.03134335147362207,
                    0.03146585041381828,
                    -0.07093450098311706,
                    0.016655788644099685,
                    -0.09005929337997623,
                    -0.14236838379628575,
                    -0.04001744242543008,
                    0.07000042676909804,
                    0.011124822193380155,
                    -0.061280726761761745,
                    -0.1594456436784721,
                    0.0753227531261612,
                    -0.05181219429633854,
                    0.011061585807481416,
                    0.028087967410395324,
                    0.021376417866907832,
                    -0.12326427415300914,
                    0.05974627835113731,
                    0.04509391185702603,
                    -0.04536320926407453,
                    0.035562440196189704,
                    -0.020527208891529855,
                    -0.04277642919361862,
                    -0.06001180735171709,
                    0.10683688878463934,
                    0.003458321752999481,
                    0.034843346445058605,
                    -0.023622412918755286,
                    0.043867838963264655,
                    -0.10253749241748271,
                    -0.0400693318363347,
                    0.024986520187736724,
                    -0.05615023908799091,
                    0.05852492294247818,
                    -0.036565944655510524,
                    0.04593108806698719,
                    -0.006881261774107636,
                    -0.06200528551574901,
                    -0.030492385551509595,
                    0.0973260096260032,
                    0.08094496944393342,
                    0.0034660263063544935,
                    -0.043866403568150865,
                    0.022964695125471432,
                    0.015212161823224863,
                    -0.027556775485308604,
                    0.05602985361302681,
                    -0.036825134258082697,
                    0.03086549869446534,
                    0.08966716830543264,
                    0.031458296673129466,
                    -0.09101442507899969,
                    0.10035668587811951,
                    -0.007620113419576086,
                    0.030518392759864444,
                    -0.0010927395953325909,
                    0.05706859663809959,
                    0.035298847572948454,
                    -0.06360876284456411,
                    -0.10356497433981696,
                    0.05712624180973332,
                    0.03352818188697016,
                    -0.0032160761494423786,
                    -0.039483562518960236,
                    -0.005651463672161262,
                    -0.010015876535218222,
                    0.13587227971174606,
                    -0.012293132574445946,
                    0.0412594711009002,
                    -0.024892635584581775,
                    0.04402332708747253,
                    0.09741508157924754,
                    0.05264097990717783,
                    -0.06504420029846344,
                    -0.003365319476902058,
                    0.061097980057203446,
                    -0.03587660601295159,
                    -0.11850221181561167,
                    -0.00505365098769027,
                    -0.035789531419102974,
                    -0.11779706020810882,
                    -0.03906293682040052,
                    -0.06440978297166275,
                    -0.07319219044765503,
                    0.005085085730993895,
                    0.01401853778835851,
                    -0.01569830353865689,
                    -0.0505432327516542,
                    0.04977777857515955,
                    0.028109717566243805,
                    -0.13158516649435786,
                    0.06990677986710361,
                    0.07558535981237546,
                    -0.011654986806194846,
                    0.08759796470770032,
                    0.0018650972280404127,
                    -0.03556943868568142,
                    -0.02916867801895962,
                    0.014767995150786199,
                    0.003894894206140329,
                    -0.019124648717640587,
                    -0.13252686297145846,
                    -0.01400815137461305
                ],
                [
                    -0.008705338634550924,
                    0.09285972397157471,
                    0.04684684161176765,
                    -0.011196565074840858,
                    -0.0011719792874380305,
                    0.0711284638020178,
                    -0.04364074443630929,
                    0.04473406832437201,
                    -0.019814622511780334,
                    0.02443606409687818,
                    -0.004945161533534819,
                    -0.10514697571632145,
                    0.07527968165418353,
                    0.028035142036736866,
                    -0.049599677568253606,
                    -0.010468653943972029,
                    0.09820938582284373,
                    0.14828836054753772,
                    -0.05788833010707179,
                    -0.07470433315903154,
                    -0.052722108801929055,
                    0.04499752239133788,
                    -0.06361915536575834,
                    0.06478722237330505,
                    0.001770346676434344,
                    -0.0056490619886995054,
                    -0.019973462403187623,
                    0.08087152754005068,
                    -0.06866610026672916,
                    0.09046903897325133,
                    0.028835702271016655,
                    -0.0029912701700332413,
                    -0.04950315320791964,
                    0.1134625107671862,
                    0.011541049725328097,
                    0.09304851377322602,
                    0.14824171871742234,
                    -0.013665691816248608,
                    0.14313504911457572,
                    0.02866658130740777,
                    0.024742019601703538,
                    -0.0738938761117227,
                    -0.055182405662935904,
                    -0.02603763897850973,
                    0.034816290180802796,
                    -0.12257644415090367,
                    0.005380636252626773,
                    -0.10540049101655487,
                    -0.08062244117120108,
                    -0.07543028168295464,
                    0.030391029811585632,
                    -0.04092514329109305,
                    0.010834308646011766,
                    0.016766258227042277,
                    0.04876181516809837,
                    -0.04287666132692328,
                    0.11832959846881949,
                    0.011965353946723739,
                    -0.06582654770392467,
                    0.02964644706782882,
                    -0.04477765527075913,
                    0.026846542885807956,
                    0.017276629299385962,
                    0.005106554067878438,
                    -0.03096568541524937,
                    -0.08458558430678641,
                    -0.024801209508870752,
                    -0.026224124117697083,
                    -0.011210809082234093,
                    -0.01315318948581917,
                    0.06587198946953181,
                    -0.052774841285730525,
                    -0.04282520373906473,
                    0.003941784132112592,
                    0.10104572804368132,
                    -0.04400349199840584,
                    0.053767906949970745,
                    -0.05130880301982847,
                    -0.0014944188655351453,
                    0.09141721826144394,
                    -0.0231155437972869,
                    0.06964358178978895,
                    -0.010309652147963904,
                    0.05291949823310725,
                    0.04259906044381312,
                    -0.03378346839874362,
                    -0.04621616302849918,
                    0.07347646063248263,
                    0.11578653076507436,
                    -0.10363001423904206,
                    -0.04111468060237399,
                    0.043360848883119356,
                    -0.07436407788088636,
                    -0.00042542957926067454,
                    0.04734325797906343,
                    0.04371755018435328,
                    0.13296640657644812,
                    0.06110212854133454,
                    0.13164044909153055,
                    -0.048824074976001115,
                    -0.01935420421156944,
                    0.012806024818378368,
                    -0.0026851989580097303,
                    0.16382219497490647,
                    -0.03594479450462123,
                    0.0643906759744857,
                    -0.012635036418842099,
                    -0.0038944204612667006,
                    -0.030862851674384847,
                    -0.0491309375213476,
                    0.03837580516179959,
                    0.11202046510038026,
                    -0.008552545671147825,
                    0.017528799419733926,
                    -0.0010789360711568033,
                    -0.02310327894630501,
                    0.03763238203308585,
                    0.06636823475418678,
                    0.06918627880246747,
                    0.16414885376898009,
                    -0.15318835435325814,
                    0.010112445105507793,
                    0.06687434018555813,
                    0.06637290685626855,
                    0.02013492006677225,
                    -0.0012324528427328882,
                    -0.061304874464799514,
                    -0.03321776184070382,
                    0.0004324213313203203,
                    -0.08466685376930753,
                    0.04539581660610739,
                    0.004174596129797314,
                    0.011960809389261019,
                    0.07039715789149424,
                    -0.014412814851707851,
                    0.07663245091615553,
                    0.10277127933908246,
                    -0.003402994420182497,
                    -0.018066201431488783,
                    0.016363322131812987,
                    0.0038933682999871422,
                    -0.22005267637344755,
                    0.034952540631926717,
                    -0.12045288017877077,
                    -0.0012864224303962598,
                    0.03535525843326086,
                    -0.06035391775810138,
                    -0.06188110081026339,
                    0.008877415988434402,
                    -0.09427686902735283,
                    -0.07323101956884279,
                    -0.11584654369869476,
                    0.08934344191588857,
                    -0.041142235761652386,
                    -0.021222173843344315,
                    0.011152677765985995,
                    -0.048509713364701425,
                    0.1014657647754535,
                    -0.02324237081028477,
                    -0.01247987060828164,
                    -0.049773944048149596,
                    -0.1396372285803466,
                    0.023273825746014724,
                    -0.05434293375628686,
                    -0.12010361862662991,
                    0.04984018740935384,
                    0.023931363292624505,
                    -0.0004236766928885632,
                    0.016379504602362722,
                    0.0660324405779958,
                    -0.01879003724485829,
                    0.04397505064892714,
                    0.006989088573930403,
                    -0.0005152226381389312,
                    -0.12402654056388163,
                    -0.06374146223941371,
                    -0.013102705974328815,
                    0.012158161294952665,
                    -0.030183516274835082,
                    -0.07253946379749947,
                    0.0004808904341204052,
                    -0.09489731361639088,
                    -0.06528477644980245,
                    -0.017229389430441538,
                    0.03553253135357682,
                    0.0167097050908302,
                    0.08437979559981548,
                    0.0435867582082135,
                    0.03747550466473117,
                    -0.0047573738264237815,
                    0.08280225718886046,
                    0.11619063298930887,
                    0.04587778250187739,
                    -0.02757562629845972,
                    -0.07458540136592338,
                    -0.04835300236104014,
                    -0.03905555363373868,
                    -0.08592354918598008,
                    0.0793674732917665,
                    -0.06012276322418875
                ],
                [
                    -0.024533654968337495,
                    -0.03536011831559801,
                    -0.07306094700115495,
                    -0.13422041154142086,
                    0.018723920129572122,
                    0.02698817088505064,
                    0.12413011772290553,
                    0.011604221831060727,
                    0.14080520442520797,
                    0.05214804990263545,
                    -0.20965211019423804,
                    0.08415698610201292,
                    -0.05996350427047495,
                    0.014266085950686562,
                    -0.1448272427208289,
                    0.02519136375149673,
                    -0.048966358019093964,
                    -0.017429379718221793,
                    -0.04234324933978627,
                    -0.09768184085295942,
                    0.034192524167303645,
                    0.04575970287713667,
                    -0.0471027605038071,
                    0.06211786456013494,
                    0.14583155244227283,
                    0.08206143374904497,
                    -0.004810478599910912,
                    0.049731252044164516,
                    0.045003133890463905,
                    0.024126042391388547,
                    0.03452907513372688,
                    0.025310446967183486,
                    0.034929467553544966,
                    -0.0005649819212524828,
                    -0.10277025321658535,
                    0.06357222971032862,
                    -0.08514737532228872,
                    0.061186934430856814,
                    0.03849640659414745,
                    0.009478048394945844,
                    0.036007026224799066,
                    -0.033098240059702105,
                    0.08777860823885943,
                    0.044178523319594015,
                    -0.0530237637388786,
                    0.05070564752478046,
                    -0.1148113294504,
                    0.05508208859433805,
                    0.008403961771057842,
                    0.03133418256390508,
                    -0.022531855287329,
                    0.1255007318014331,
                    0.07693660281396499,
                    0.0474296156267411,
                    -0.07562272054253016,
                    -0.036987796553105856,
                    0.09158083173219835,
                    0.026794949521164044,
                    0.09232125779579277,
                    -0.06716536734685309,
                    0.03312823002171259,
                    0.07700754610160593,
                    -0.002843076678766202,
                    0.12189252076168432,
                    -0.042883527413520306,
                    0.03523178039084908,
                    -0.031802924031296115,
                    -0.041867334259239795,
                    -0.014880969045078532,
                    0.027524916545139895,
                    -0.01866708155744322,
                    -0.07577606873020216,
                    0.047426288999786854,
                    0.07198560769116118,
                    -0.0021872877767767558,
                    -0.06115801791538985,
                    0.05068620938945385,
                    -0.012291981882175215,
                    0.023543914429229807,
                    0.06828496346200269,
                    -0.005746543548545008,
                    0.04376846635639794,
                    0.06688719572064282,
                    -0.0138462928196073,
                    0.1418001511436572,
                    0.05277247583639656,
                    0.0032741931166584163,
                    0.04265620679749174,
                    -0.0033733964988095144,
                    -0.01507608503769535,
                    -0.03403324842899594,
                    -0.14886044472524743,
                    0.032861735314506986,
                    -0.04056871224277098,
                    -0.061133785412594746,
                    0.07395466323069234,
                    0.034998746687993416,
                    0.023420377080705282,
                    0.0098731502192203,
                    -0.12613127967130466,
                    0.05405840212068572,
                    0.014521043519823276,
                    0.04588302125222246,
                    -0.07339024811924226,
                    -0.027178977079586334,
                    0.0193234699835118,
                    -0.03070828488666883,
                    0.022375238162682498,
                    0.1534646663641099,
                    -0.0028261913841318427,
                    0.014622499752409254,
                    0.00815619063000935,
                    0.09113052585055018,
                    0.04831632131612816,
                    -0.029214717400357887,
                    0.0015380021847608628,
                    0.04201751703248379,
                    -0.014702642739176382,
                    0.02864911055971761,
                    0.03975302246709123,
                    -0.006257717993423814,
                    0.04108596455976073,
                    0.049597308048337375,
                    -0.020648351341925743,
                    -0.06451609136422795,
                    -0.06326594156923829,
                    -0.10878793635220564,
                    0.02319374831301514,
                    -0.10788483413536436,
                    0.11203342993385335,
                    -0.04817298233542759,
                    0.023381510397684015,
                    0.04637314169675536,
                    0.11012848831261382,
                    0.1173152792390999,
                    -0.042662185947863536,
                    0.0561721639794495,
                    0.12947999298510474,
                    0.021883811498890623,
                    0.08106280452896235,
                    0.053247747446362834,
                    0.008908888619280964,
                    -0.08687751742238252,
                    0.06497121455278063,
                    0.05241576014296694,
                    -0.041386654713891566,
                    -0.1300210168911128,
                    -0.0076537379732172,
                    0.17720190996366422,
                    -0.1552538348412796,
                    -0.11079387577229931,
                    0.004734776221821605,
                    -0.03798524854950795,
                    -0.016928356993179995,
                    0.01131247081646103,
                    0.1541490641741675,
                    -0.005101364093189935,
                    0.09518439016893569,
                    -0.013311758099979396,
                    0.007388317937958032,
                    0.042435575043359465,
                    0.05256525637683387,
                    -0.024015718709117933,
                    0.03604534808995474,
                    0.006538702821072128,
                    0.01898715802658761,
                    0.03387416659819457,
                    0.028773915922332204,
                    -0.005920150145438155,
                    0.04532581801748928,
                    -0.10178071418040861,
                    0.10905752661439141,
                    0.03254900041792936,
                    -0.0005083598065911312,
                    -0.12087343862529555,
                    0.0692404968213316,
                    0.15748514632232039,
                    -0.04980434810762089,
                    -0.03323342828878376,
                    0.0773527610279158,
                    0.025875688963340075,
                    -0.09859172159207302,
                    0.05320851991316533,
                    -0.05105339203354032,
                    0.05698320335517208,
                    -0.015607799353609538,
                    0.0789825096064253,
                    -0.0298234558050319,
                    0.09267060424448034,
                    -0.01676700143739456,
                    -0.03007892280034361,
                    -0.013941409940420044,
                    0.037070916257352045,
                    0.06172314122856686,
                    -0.028490845007803085,
                    -0.04968877713350885,
                    -0.0973631466912864,
                    0.05915500511855255,
                    -0.0028941917643832537,
                    -0.07273832841419504
                ],
                [
                    0.07690757813833586,
                    -0.11738491117913492,
                    -0.023077289924037576,
                    -0.009445688305263765,
                    -0.08460180916770925,
                    0.034960175649438534,
                    0.043988599085112184,
                    -0.016004583052603685,
                    -0.05760600943479303,
                    -0.122687339441763,
                    -0.036844010087408764,
                    0.04070392717925382,
                    -0.045580756206130495,
                    -0.11960066924170974,
                    0.018664198609707618,
                    -0.029248665194102286,
                    -0.03284138114364839,
                    -0.025530357367537924,
                    0.020412093169576224,
                    0.004550964960912246,
                    0.03459167943659906,
                    -0.08868983263770283,
                    0.021641924875092994,
                    0.01912400447960272,
                    -4.618163761318187e-05,
                    0.055327476531974805,
                    -0.10760738189771234,
                    0.026298176987720474,
                    -0.03175333578954969,
                    0.06190174087807978,
                    -0.07619286207797248,
                    -0.04556981705386417,
                    0.11698344800917504,
                    -0.1472962681728042,
                    0.007275370860483318,
                    0.020989084265422328,
                    0.006129726466385597,
                    -0.05444731898167885,
                    0.03181526554660043,
                    -0.0068584756656265514,
                    0.03439537206446803,
                    -0.07998581856574685,
                    -0.0714260535654812,
                    0.09706050170289535,
                    0.05077987131511038,
                    0.009172571284187707,
                    0.01226727604665559,
                    -0.08253619429549834,
                    0.00027170839311191884,
                    0.12549171706931217,
                    -0.00018657745361158015,
                    0.052424307193488236,
                    0.0795986606578225,
                    -0.03207010111458188,
                    0.0003922580638901941,
                    -0.019040992851123387,
                    0.12283711679106298,
                    0.030894259109876233,
                    -0.013991343076358805,
                    -0.14232833618708854,
                    0.02620900471002963,
                    -0.020418648707803844,
                    -0.04245105432042938,
                    -0.09112155390691598,
                    -0.030859546925881744,
                    -0.07960016430575177,
                    0.04829826770955513,
                    0.06639908949662338,
                    0.12794892908794658,
                    -0.02320857031468989,
                    0.11579770219724365,
                    -0.10660652905619399,
                    -0.02879772169275543,
                    -0.036432577148115534,
                    0.04368455858831867,
                    -0.07263836667602094,
                    0.06466067784077756,
                    0.06306535273853371,
                    -0.07348228775500382,
                    -0.0832994994365656,
                    0.03009504583818959,
                    0.113664537816194,
                    -0.028611264465344895,
                    0.01644927951922815,
                    0.015281562918808741,
                    0.027972575575189573,
                    0.06810856895389833,
                    -0.00015449448690755556,
                    -0.02391256404251938,
                    0.024349769227524395,
                    0.028884417697546638,
                    -0.09236132646591157,
                    0.014572630568290786,
                    0.004637553395531479,
                    -0.1660901256985535,
                    -0.003836643307398916,
                    -0.12197383243452825,
                    0.014217503978240694,
                    0.07682422463327931,
                    -0.06052328404775233,
                    0.12245120926369304,
                    -0.04406306809338583,
                    0.041816700835730816,
                    -0.13578216113612263,
                    0.05911189573791176,
                    0.018009958188487125,
                    0.09750282259728127,
                    0.018690962481403475,
                    -0.008493829086068608,
                    0.0955256754571451,
                    0.11085180368541721,
                    -0.0867496557110452,
                    -0.10841779937387473,
                    -0.10650316516787409,
                    -0.03787871641524365,
                    -0.03762590797522144,
                    0.055450113713018834,
                    -0.04079489317540638,
                    0.12322178373037439,
                    -0.06768538423251891,
                    0.027574064113630507,
                    0.03856028557212306,
                    0.04544912400762788,
                    -0.019925467317743167,
                    -0.12233988411759274,
                    -0.04725726134858541,
                    0.024128977288025377,
                    0.13408433037618642,
                    0.028805919026188422,
                    -0.050321572894189585,
                    0.11723756860759553,
                    0.09641895398919226,
                    0.05399535892662351,
                    -6.516192678444915e-05,
                    -0.05710679935632783,
                    -0.02939326204995908,
                    -0.024578300901508726,
                    0.08964467004571791,
                    0.06119794845068482,
                    -0.059701281961214124,
                    0.046911686871258004,
                    -0.024924518984939543,
                    -0.04339988836320549,
                    0.01955802448095229,
                    -0.07700396126365029,
                    0.11029897235391005,
                    0.03483450465741027,
                    -0.02750777299325761,
                    0.08642479063514885,
                    0.014800549661806127,
                    -0.03345197635787575,
                    -0.053704826445054116,
                    -0.12505485131376753,
                    0.06765240825623355,
                    -0.09786158214133253,
                    0.018250914708947616,
                    -0.00508269515525156,
                    0.09127266959936065,
                    -0.0008994859582578121,
                    0.04415759172277308,
                    0.005706363067554033,
                    -0.008558905137996913,
                    0.013706830234534145,
                    -0.09593224415925748,
                    -0.05334468869417824,
                    0.023145597599982342,
                    0.020988442892862,
                    0.0542701778576547,
                    -0.010073031707677423,
                    -0.03711335157386463,
                    -0.07004736348339519,
                    0.044470452518117265,
                    -0.0850690472480565,
                    -0.012617280902421087,
                    -0.08617632083413063,
                    0.08224555946768969,
                    0.022613087857854385,
                    -0.13859310203479153,
                    0.038586483046513374,
                    -0.018955965355320358,
                    -0.08193859977792593,
                    0.019463052129487318,
                    -0.016767513083169986,
                    -0.07417535053150641,
                    0.0727041525409768,
                    -0.1322472439932574,
                    -0.04572928798748672,
                    0.03593452568284654,
                    -0.0051924752114739,
                    -0.07822665267406508,
                    0.05994333825466303,
                    0.10439127283409783,
                    0.022272900089519636,
                    0.01901868943617027,
                    -0.05820189210836335,
                    -0.02021971502464806,
                    0.03571440286535858,
                    -0.018824251333681864,
                    0.011734735577778151,
                    -0.049304478816679036
                ],
                [
                    -0.015807492703832353,
                    0.05473532856948739,
                    0.17588214876587674,
                    0.017968018246496086,
                    0.048078609771915304,
                    -0.06545087018404909,
                    0.01700878382010733,
                    0.027850560077251296,
                    0.10044629762358505,
                    -0.01284947371134686,
                    0.012115754395603522,
                    0.032653419221738714,
                    -0.03280919184704673,
                    -0.029839919699883338,
                    0.028630260467683136,
                    -0.12457648562476688,
                    -0.04478483206415921,
                    0.0786517084126019,
                    0.06747339418387471,
                    -0.08994013188388553,
                    0.05372316574397515,
                    -0.08284195032479635,
                    -0.06582508640885042,
                    -0.03917875863886866,
                    0.06201049712474472,
                    0.05546873026758104,
                    0.12109859045986655,
                    0.059499126687799546,
                    0.0023786690220328308,
                    -0.004002815555479265,
                    -0.06484376216310526,
                    -0.013351455590375788,
                    0.12461650176515557,
                    0.1119108068330854,
                    0.02880551200049152,
                    0.019155737161085117,
                    0.09371170114089628,
                    -0.1312745774130157,
                    0.0029788480891517555,
                    -0.061123980244195734,
                    0.0004367858896579194,
                    -0.08876482950530391,
                    -0.07772682008579225,
                    0.08984935120533738,
                    0.10230951818534112,
                    0.0626238693141858,
                    0.02155797144462565,
                    -0.09185235394363263,
                    -0.058738837594583815,
                    -0.04005584380822356,
                    -0.005442430506713241,
                    0.035276190844921805,
                    0.04230974594959097,
                    0.0019235179358151851,
                    -0.03477583316818153,
                    -0.0313645171439953,
                    0.06845104977793466,
                    -0.10115686229459879,
                    -0.04103065365426218,
                    -0.10179442797373509,
                    -0.005293124751523499,
                    -0.06887730960980472,
                    0.04711516111051127,
                    0.08612450752749758,
                    0.000542195618546249,
                    -0.005329865575765188,
                    -0.09102448249402761,
                    -0.002325788514383273,
                    0.02401515428149915,
                    -0.020810134847121305,
                    -0.07740547319875582,
                    -0.013697433780568145,
                    -0.011935315538490816,
                    -0.031415588592936104,
                    0.036270466741149754,
                    0.1111430133503564,
                    0.025137302633100628,
                    0.023356680825083378,
                    -0.008999076150284195,
                    -0.09951652032772496,
                    -0.05386554868991711,
                    0.08467543025175703,
                    -0.08563217658593313,
                    -0.040567376011991105,
                    0.10648472165594587,
                    -0.007357924269266604,
                    0.044912919447261876,
                    -0.061228707662662855,
                    -0.05930149131819563,
                    -0.11754808538716888,
                    -0.14585184563162323,
                    -0.10157483538465126,
                    0.028599859331424442,
                    -0.06267138798518869,
                    -0.034629850563006506,
                    -0.13340819299690915,
                    0.029328055250814375,
                    0.010112583447859166,
                    0.0740303485350776,
                    -0.06594798812222868,
                    -0.06893410250082901,
                    -0.05399210604595998,
                    0.06015688949788527,
                    0.03965833125773577,
                    -0.0008285811979937688,
                    0.04786467236032056,
                    0.11689273147820371,
                    0.02863189259602625,
                    -0.017029357263270106,
                    0.09822999147324069,
                    -0.08985076424257982,
                    -0.054219615990292416,
                    -0.00029448427212971136,
                    0.04593628340256809,
                    -0.08616178885680531,
                    0.0322777012862572,
                    -0.09634555008011621,
                    -0.036109654685763735,
                    -0.10749901177520813,
                    -0.006504726781733987,
                    0.11506853453434589,
                    0.09595868626736585,
                    0.0532864844466143,
                    -0.06649111590333112,
                    0.0563052956560623,
                    -0.10210238673748975,
                    0.012524855240181083,
                    -0.08562078445956792,
                    0.11622901511456547,
                    0.031753359154060065,
                    -0.017031031101658003,
                    -0.13334224118424912,
                    0.024522873095211912,
                    0.020299427591331267,
                    -0.11106095273065165,
                    -0.10892401729891764,
                    -0.11005541704138559,
                    -0.06989298462163926,
                    -0.07058585309750036,
                    -0.06669614000904411,
                    0.01782782238692558,
                    -0.03375927048406851,
                    -0.09802446550348093,
                    -0.07358134297751842,
                    -0.10574390332463661,
                    0.038229714212701764,
                    0.035128966475012936,
                    0.10139241053740976,
                    -0.15422293194885478,
                    -0.01783605079295587,
                    0.01693511896818708,
                    0.07144517778923054,
                    -0.027234437362466276,
                    0.007414929364811225,
                    -0.09608061667194856,
                    0.1257909532589755,
                    -0.08606912762758093,
                    0.03041883288213802,
                    -0.018422916653310722,
                    -0.047570481378171464,
                    0.0417605837293846,
                    0.19310578349578567,
                    -0.03496197031122307,
                    0.09594136557266406,
                    -0.0972776321330803,
                    0.04667947407291623,
                    -0.09978718700244879,
                    -0.04300115469880429,
                    0.011301413963705159,
                    -0.01414792687747373,
                    0.010634110579783845,
                    0.0004965004227579587,
                    -0.0820716782850665,
                    0.005120368994786483,
                    0.03469666826150256,
                    -0.003628532982305292,
                    -0.07066651412645399,
                    -0.0735803128915998,
                    0.019772821559189392,
                    -0.030553031696894273,
                    -0.06443187524119189,
                    0.10613413404917979,
                    -0.03458352547826615,
                    -0.01800306844020823,
                    0.09886239957136203,
                    0.004311261408985169,
                    -0.03396227302572583,
                    0.03817988709436325,
                    0.016688607705244753,
                    0.023528175251701935,
                    0.02663893462264255,
                    -0.12244737310700422,
                    -0.08066646820973034,
                    0.027921227736343226,
                    -0.06879485145480156,
                    0.03399211578486314,
                    -0.0348089848941335,
                    -0.022178704639994475,
                    -0.0074989971033425805,
                    -0.010833130872646732
                ],
                [
                    -0.006827718100930029,
                    -0.0269496790030306,
                    0.09727972885078619,
                    0.0067792062470571545,
                    -0.13067441399516644,
                    0.02639971233734611,
                    0.013135217930487072,
                    -0.056301868110197426,
                    -0.010102298391221958,
                    0.03750861472559992,
                    0.12245825915287781,
                    0.0025995976640843283,
                    -0.009361775789375127,
                    -0.0033184982989875465,
                    0.18441951987171115,
                    0.00510126595842881,
                    0.05596315808258181,
                    -0.09645182528057256,
                    0.04687836829670193,
                    -0.04240888045244766,
                    0.05842086754512306,
                    -0.008427274006453708,
                    0.01861977141057283,
                    -0.09052937181113234,
                    0.009260554218442395,
                    0.021402378353495358,
                    -0.015075231899844888,
                    0.023894226402281962,
                    0.018662891696211655,
                    -0.006681686040060021,
                    0.08881599332311352,
                    0.16548280014769404,
                    -0.003964529618556835,
                    -0.056413123648439006,
                    -0.06135043188765948,
                    -0.11104615259659291,
                    0.09093196383302528,
                    -0.027681621127820473,
                    -0.04543286356937489,
                    0.11334324067573563,
                    -0.14175031003259614,
                    0.006910086944541983,
                    0.10089041362353672,
                    0.013069380144123266,
                    0.006071694876891918,
                    -0.025820268802311846,
                    -0.017340619146337912,
                    0.09204520297361359,
                    0.05340683132661699,
                    -0.0030863764250741617,
                    -0.11105240982929401,
                    0.08527546189160248,
                    -0.07259790453718404,
                    0.03579181338293314,
                    0.026803756901820873,
                    0.009271945542249957,
                    -0.018124582534281532,
                    -0.029285767102226436,
                    -0.11977390572534909,
                    -0.0057733776739057295,
                    0.01791215397105934,
                    0.008701753921583991,
                    -0.0056142533002048545,
                    0.017122389468650773,
                    0.027772871262141924,
                    0.057642154307153144,
                    -0.01807119251646834,
                    -0.055919461817826595,
                    6.746216995306545e-05,
                    0.05286641537133002,
                    -0.06850512739372379,
                    0.0373899447554748,
                    0.041701377025496804,
                    0.04135915528942315,
                    -0.047963090059655135,
                    0.08921183612610645,
                    0.06436188610989406,
                    -0.01560145590771526,
                    0.034993651039303277,
                    -0.030759051654616492,
                    0.05746207658890616,
                    0.0404466328838165,
                    -0.016136682126878837,
                    -0.06869010149005181,
                    0.08022082388405254,
                    0.060074818884006814,
                    0.10301702132344263,
                    -0.037328396969085395,
                    0.05147170845202855,
                    -0.029436890597846974,
                    -0.04121666753983952,
                    0.023081408721548333,
                    0.15530222275679334,
                    -0.005932912707143585,
                    -0.07205356612586945,
                    -0.009906557821679166,
                    -0.11219159935892502,
                    -0.06457548907778819,
                    -0.17378709497396233,
                    0.011755910640133404,
                    0.06075938925091946,
                    -0.018128311221912583,
                    -0.030989654004579908,
                    0.08403303738747428,
                    0.005202280196101003,
                    0.012470103199941957,
                    -0.1276129866813295,
                    -0.09138877057183895,
                    0.006046508225902716,
                    -0.03049567223149051,
                    0.06978255566297084,
                    -0.07075446729417946,
                    0.023183433776075225,
                    0.06992496712711928,
                    -0.02903524222552892,
                    0.05132726579709309,
                    -0.0049758840751062605,
                    -0.039706978037381636,
                    0.008115526709958517,
                    0.056702756638104035,
                    -0.036652875977065645,
                    -0.05940125751127877,
                    -0.05865683190942923,
                    -0.05460274676347796,
                    0.05661956890039968,
                    -0.03647261555226746,
                    0.03965932099005108,
                    -0.13440566447514685,
                    0.027350951513548646,
                    0.11830066562604408,
                    0.017306875657723552,
                    -0.015671117673744406,
                    0.00012667795387383236,
                    -0.0006368325571710059,
                    -0.031143597485869853,
                    0.0059196557645779385,
                    0.05930901147212343,
                    -0.05425884526936586,
                    0.02743635117445684,
                    0.029003355375123607,
                    -0.06331833205544472,
                    -0.0024209295674345256,
                    -0.02560486546300383,
                    0.005716906206005009,
                    -0.10704282805003561,
                    -0.014899898256324446,
                    -0.08275529602694574,
                    -0.04968449666787965,
                    -0.055167971920818494,
                    0.017785594560757678,
                    0.07994353987426929,
                    -0.06554080645385894,
                    -0.10957462014469595,
                    0.04968382788773094,
                    0.10397650716669041,
                    0.06095833078974252,
                    0.06821727842283185,
                    0.09182131597767244,
                    -0.07047636766012631,
                    -0.02194949738425718,
                    -0.01984429040861963,
                    -0.0965365414191925,
                    0.0016273602230510796,
                    -0.07345108242960226,
                    -0.06995754626670901,
                    0.0747843432159095,
